1.4208
1.0835
-0.77412
-0.42782
0.17069
-0.18073
0.44473
0.78344
-1.1021
1.4354
-0.10025
-0.070665
0.074738
0.028942
-0.044733
-0.020659
0.087413
0.013783
-0.023424
-0.022274
-0.033952
-0.056492
-0.053129
-0.10889
-0.021619
0.097866
0.037196
-0.051874
-0.070049
-0.00043168
-0.0094101
0.032069
0.049447
-0.098489
-0.079241
-0.0026321
-0.068322
0.016189
-0.063463
0.027506
-0.039639
-0.056888
0.083162
-0.043044
0.069389
0.022148
-0.0016694
-0.033136
-0.032608
-0.0061329
-0.10061
0.081296
0.081419
-0.076263
0.011122
0.1077
-0.049548
-0.076867
0.002003
0.044907
0.065455
0.096435
0.061422
0.041046
-0.058836
0.01826
0.06122
0.016144
-0.045488
-0.11967
-0.0098275
0.05942
0.073837
-0.00037423
-0.032728
-0.015209
-0.062241
0.075539
0.060645
-0.088351
0.071987
-0.053218
0.015133
0.028859
0.020781
0.039196
-0.029325
0.01894
0.041677
-0.011969
-0.024256
0.045302
0.057418
0.037849
-0.0023373
0.0073869
0.09742
-0.060204
0.037819
0.017233
-0.092543
0.034534
0.030506
-0.00016478
-0.061956
-0.051414
-0.065776
-0.061406
0.085165
0.04084
0.0519
-0.020506
-0.011917
0.031864
-0.058702
0.026111
0.063661
-0.074574
-0.064368
0.01905
0.055598
-0.020765
-0.017242
0.019076
-0.032822
0.085411
-0.015783
0.071922
-0.036653
0.052404
-0.027181
-0.060806
0.0048095
-0.12494
-0.011626
-0.020316
-0.023108
0.077611
0.08039
-0.065342
0.015946
0.05588
-0.068825
-0.058144
-0.10271
-0.022339
0.10389
0.012413
-0.018473
-0.10393
-0.020625
-0.02182
0.056517
-0.002749
-0.099759
0.085708
0.015358
-0.050068
-0.011076
-0.061498
0.0092998
-0.019147
-0.063615
-0.0073188
-0.051602
0.020317
0.096928
0.0039621
0.090043
0.04854
-0.033252
-0.012861
-0.022186
0.024405
0.046306
-0.016046
0.10409
-0.074914
-0.018943
-0.092442
-0.050706
0.026965
0.042204
-0.083386
-0.10581
0.036057
0.019531
-0.090192
0.031585
-0.040301
-0.076892
-0.072375
0.028773
-0.029287
-0.051258
-0.033303
0.030295
-0.088582
-0.0013469
-0.11088
-0.093027
-0.02739
-0.063984
0.040997
-0.079009
-0.050818
-0.073302
0.029793
-0.024776
0.039259
0.0095311
-0.0030576
0.084858
-0.12224
0.049505
0.051086
-3.8299e-05
0.035669
0.08312
0.0621
-0.092852
0.090699
-0.094635
-0.12046
-0.042126
-0.022173
-0.012957
-0.015718
0.021517
0.010648
0.056347
0.055641
0.05538
-0.0076677
-0.077915
-0.0397
0.090223
0.053201
-0.063542
-0.026872
-0.010488
0.093567
-0.028974
-0.07361
-0.07754
-0.018364
-0.006038
-0.029022
-0.0088522
-0.028368
-0.045691
-0.0043954
0.069213
-0.011359
0.074589
0.058498
0.012694
-0.072336
0.01872
0.042594
0.063006
0.011208
0.016425
-0.061224
-0.052214
0.066663
-0.029296
-0.08833
-0.045408
-0.037334
0.013951
-0.058684
0.053838
0.022212
-0.002412
0.024741
-0.062001
-0.001345
0.06236
-0.0068862
0.065014
0.081116
0.078238
0.029021
-0.054458
0.046718
-0.041323
0.0087622
-0.074476
0.017248
-0.081826
0.0057768
0.072344
0.00029125
-0.011072
0.060268
0.085914
0.0023926
0.010474
-0.037372
-0.085441
-0.05686
-0.043697
-0.015445
-0.02582
0.045052
0.034123
-0.0085319
-0.0032375
-0.073983
0.03888
-0.048673
0.042014
-0.035074
0.06738
0.056433
0.042042
0.06482
0.031447
0.038976
0.029577
0.044227
0.056556
-0.027841
0.0031853
0.070678
0.038785
-0.01464
0.04381
0.0017499
-0.0077303
-0.040132
-0.061686
-0.067395
-0.00072173
0.09799
-0.064578
0.0032283
-0.079994
-0.11293
0.037622
-0.016444
-0.088794
0.033558
0.012405
0.048624
0.1155
-0.070543
0.0254
-0.0144
-0.039991
-0.069257
-0.054065
0.0061901
-0.0053129
-0.030772
0.077577
0.083178
-0.020353
-0.086822
0.01695
-0.0087138
-0.022975
-0.13298
-0.042007
0.066245
-0.054932
-0.015074
0.014335
0.013832
0.030152
0.011319
-0.010527
-0.014529
-0.056738
0.073814
0.082515
-0.074236
0.054363
0.0022563
0.053713
0.12119
0.069727
0.019008
-0.021224
-0.014662
-0.067323
0.0665
-0.051004
0.018587
0.0012663
0.08154
0.059585
-0.075052
-0.058455
-0.062812
0.0060092
0.00011356
-0.066257
0.07761
0.0098259
0.089031
-0.010584
0.050151
-0.021743
-0.016588
-0.078931
0.08117
0.0089162
-0.013638
-0.12909
0.12049
-0.081987
0.018828
-0.046596
0.093052
-0.05427
-0.051407
0.08036
-0.030731
0.011915
0.0025383
0.015167
-0.073199
-0.023596
0.10985
-0.10324
0.01765
0.087764
0.043714
-0.057191
-0.011646
-0.011327
-0.13221
0.009858
-0.036883
-0.067887
0.047206
0.03798
-0.0082504
-0.056205
-0.025908
0.018497
-0.1133
0.00089139
0.016797
0.0090918
-0.020635
0.041158
0.071977
-0.09436
-0.041341
-0.041915
-0.050057
-0.067646
-0.0069555
-0.077612
0.080022
0.057936
0.023954
-0.038806
-0.033495
0.019871
-0.040575
0.055798
-0.056221
0.06687
0.08548
0.089748
0.063433
-0.062931
-0.082172
-0.072766
0.015498
-0.068189
0.089911
-0.027319
-0.052753
0.077397
0.056462
-0.063612
0.039709
0.035466
-0.026742
-0.07876
-0.012585
0.057027
0.036854
0.048737
-0.10718
-0.085086
0.077204
0.034945
-0.10631
-0.047634
-0.063834
0.050938
0.010631
0.03782
-0.09414
-0.00982
0.091856
-0.034638
0.032376
-0.041253
-0.013135
0.047591
0.05379
-0.015057
-0.056641
0.0055994
-0.037884
0.017216
-0.094746
0.019923
0.059813
0.093716
-0.013382
0.017672
-0.0053392
-0.031925
-0.069614
-0.061492
-0.013999
0.064012
-0.054753
-0.00031186
0.05886
0.027874
0.00099192
0.019101
0.013776
-0.063026
-0.031086
-0.096997
0.098855
0.090982
0.080331
0.01636
0.022046
0.067928
0.020666
0.052142
0.026756
0.025702
0.10641
-0.013126
-0.0086143
0.079202
0.03607
-0.039813
-0.080339
0.016358
-0.030686
-0.058152
0.0074829
-0.053497
-0.014374
-0.017451
0.0099217
0.024167
-0.0028608
-0.025324
-0.08673
-0.023123
-0.041981
0.069613
0.02169
-0.064911
-0.047013
-0.058631
0.027577
0.018669
-0.11491
-0.10149
0.027997
0.074406
0.049268
0.094857
0.035698
0.066821
-0.053692
0.0054869
-0.12452
0.010328
0.0035229
0.0162
-0.051195
0.091825
-0.10624
-0.089775
0.027104
-0.031986
-0.087368
-0.085174
0.025111
0.095519
-0.01006
0.091354
-0.014507
0.028019
-0.048832
-0.081494
-0.035483
-0.0069458
0.057543
0.064783
0.079397
-0.059609
-0.044048
0.033235
-0.06924
0.030545
-0.10949
-0.073508
0.06454
0.041541
-0.049267
0.10718
0.03752
-0.040691
0.10627
0.036822
-0.028442
0.075773
0.068064
-0.030214
0.02156
0.06085
0.10583
-0.026425
-0.039021
0.046222
0.0036671
0.076527
0.035151
-0.0093436
0.019749
0.14363
0.0024697
-0.067858
0.025184
-0.0072823
-0.058939
0.067847
0.060416
-0.13789
-0.00026419
0.033189
0.10308
0.0052707
0.049335
0.12563
-0.036553
0.064861
-0.012326
-0.095297
-0.0081326
0.052289
0.18829
-0.03743
0.026057
0.095603
-0.11764
0.077207
0.063582
-0.13785
0.037
0.059349
0.080652
-0.20265
0.12344
0.054812
-0.08058
0.034836
-0.020389
-0.13616
0.019585
-0.013445
0.20243
-0.029635
0.021002
0.044897
-0.0077321
-0.086797
-0.045261
-0.034461
0.015366
-0.005707
0.022418
-0.12734
0.07489
-0.022693
-0.085757
-0.071745
0.057953
0.057774
-0.033412
-0.052774
-0.020995
0.034046
-0.032082
-0.024035
-0.099027
-0.043338
0.11049
0.037103
0.014437
0.067803
-0.029188
0.036638
-0.096093
-0.08603
-0.13294
-0.091743
-0.050096
-0.0095623
0.014013
0.020442
0.091476
0.029392
-0.097662
0.09131
-0.12808
0.044043
0.047689
-0.06717
0.041583
0.063448
0.081858
-0.05287
-0.047376
0.084617
-0.042285
0.0034234
0.039475
-0.068609
0.0082309
0.052564
0.031602
-0.0015536
-0.023596
0.18911
-0.071022
0.028534
0.0091806
0.15211
0.091589
0.14427
0.074055
-0.016235
-0.024868
0.043714
0.035047
0.051645
0.031752
0.07761
0.015882
0.1178
0.1168
0.04831
-0.086923
0.064335
0.014826
0.059227
-0.0040067
0.080338
-0.045938
0.1277
0.034741
0.044818
-0.12896
0.061617
-0.046512
0.060009
-0.055523
-0.037919
-0.094106
-0.0022468
0.08909
-0.025138
-0.1066
0.00021196
-0.034793
-0.070641
-0.0049351
-0.021542
-0.025769
-0.036901
-0.015983
-0.10244
-0.0075474
-0.02393
-0.064912
0.054537
0.007866
0.020815
-0.043573
0.031462
0.03482
0.013082
-0.012642
-0.0086157
0.013433
-0.012333
-0.021353
0.032621
0.018703
0.049038
-0.080541
-0.030765
0.022828
-0.020285
-0.080615
0.046562
-0.041279
-0.021977
0.057375
0.014811
-0.007419
-0.081103
0.013169
0.069617
-0.063623
0.010202
0.067361
0.10512
-0.028665
-0.03229
-0.012252
-0.054367
-0.03742
-0.034324
0.030159
0.06741
-0.046683
0.096242
0.031459
0.093764
-0.10631
-0.057093
0.095005
0.023103
0.042109
-0.0024702
-0.0044566
0.075878
0.0012852
-0.048441
-0.016116
-0.060189
0.049214
-0.067865
0.017349
-0.10344
0.033003
0.087488
-0.092999
0.022331
-0.08179
0.073889
0.015202
0.054969
0.043751
0.012847
-0.00083682
0.022187
0.040247
0.061898
0.042901
0.015842
-0.051393
0.11316
-0.078111
0.030931
-0.051682
0.029881
0.021344
0.022819
0.07211
-0.015449
-0.01739
0.06971
0.016304
-0.047729
0.023727
-0.066231
-0.05668
0.1075
0.10163
-0.016289
-0.010931
0.05326
-0.03315
0.061268
-0.057009
-0.032741
0.042655
0.095032
0.11567
0.003029
-0.10444
0.09074
-0.11326
-0.073577
-0.0075822
-0.18972
-0.014216
0.15557
0.25977
-0.074057
0.06755
-0.0030079
-0.039158
-0.032277
0.069836
-0.049169
0.06669
-0.018151
0.2582
-0.0034404
-0.017014
-0.10317
-0.10148
-0.018122
0.10539
-0.043129
0.072192
0.034895
0.12958
-0.065791
0.018537
-0.038833
-0.066555
-0.051363
-0.025026
-0.20531
0.10723
-0.14929
0.029811
-0.15222
0.050045
0.053394
0.023612
-0.059772
0.0024092
-0.052802
0.16636
-0.0010643
-0.055522
-0.10366
0.029874
0.015486
-0.10431
0.016705
-0.057879
-0.1468
0.063557
-0.015484
-0.13157
-0.00049775
-0.041518
0.13028
0.012622
-0.0032817
0.078171
-0.020801
-0.079109
-0.016348
0.057572
0.067982
0.0096506
0.15337
0.013485
0.040914
0.021802
-0.17568
-0.041224
0.11912
0.13165
0.067485
-0.052797
0.095664
-0.083354
0.019659
0.0059818
-0.13694
-0.051474
0.1016
0.12193
0.084425
-0.052363
0.1267
0.035956
-0.006674
0.027912
0.018592
-0.10178
0.12997
0.15825
0.085149
-0.14811
0.083979
-0.10638
0.066436
0.076877
-0.031763
-0.024955
0.11935
0.098412
0.032667
-0.21234
0.14792
-0.07723
-0.060005
0.063366
0.050357
-0.025135
0.0099142
0.20079
0.033293
-0.19522
0.07282
-0.084019
0.044279
0.088585
0.046578
0.046993
-0.0086045
0.061232
-0.0058133
-0.038752
0.01853
-0.046653
0.013908
-0.011157
-0.1065
-0.010608
0.061728
-0.015082
0.02035
-0.13532
0.013128
-0.04015
-0.074084
-0.032625
-0.091226
0.081462
0.081491
0.1255
-0.032342
-0.051734
0.13824
0.051851
-0.0012457
-0.021689
0.040842
0.055341
-0.050246
-0.059577
-0.012655
-0.016308
0.099638
-0.025545
-0.0378
0.11037
0.02909
0.095075
-0.059832
0.052116
0.0085607
-0.0050056
-0.061
-0.026665
-0.036912
0.057734
0.004184
-0.040988
0.01691
-0.039026
0.021657
0.0098414
0.057306
-0.1202
0.0018939
-0.03511
0.086199
0.041619
-0.039581
-0.098616
0.022425
-0.041595
0.077401
-0.015889
0.04054
-0.02555
-0.027752
0.063043
-0.047091
-0.11034
-0.057951
-0.055715
0.063087
-0.067013
-0.088284
0.033749
0.039234
-0.013827
0.085604
-0.099106
0.054699
0.065278
-0.08014
0.042445
-0.1056
-0.01338
-0.051229
0.057511
0.026272
-0.12023
0.018727
0.0089516
0.052774
0.0022893
0.034641
-0.039655
0.00080191
0.037052
-0.023895
-0.027788
-0.051231
-0.047586
0.014063
-0.050208
-0.032944
-0.054602
0.07076
-0.001933
0.057502
0.11326
0.011775
0.049755
0.10165
0.010014
-0.030959
0.043392
-0.019797
0.047197
0.059935
0.12829
0.087612
0.080287
0.10223
-0.074086
-0.058444
0.078718
0.14099
0.032049
0.24663
0.18685
-0.083271
0.025769
0.039126
-0.12432
0.017745
0.078723
0.032875
0.0043977
0.17487
0.17835
-0.045503
0.11848
0.066571
0.052205
-0.05418
0.00036468
-0.12463
0.0284
0.1033
0.20495
-0.094395
-0.078605
0.063393
0.020677
-0.077015
0.047161
-0.010931
0.029499
-0.083825
0.17062
-0.089891
-0.055897
-0.040162
-0.037293
-0.012457
-0.063011
-0.053675
0.011127
-0.20631
-0.043089
-0.054938
0.031624
-0.11005
0.017378
-0.052138
0.018178
0.036581
-0.017945
-0.1827
-0.057912
-0.072992
0.051933
0.021567
-0.013442
-0.024507
0.062031
0.066853
0.089086
-0.076653
-0.06897
-0.10281
0.11265
0.18331
-0.095761
-0.10047
0.1046
0.090771
0.086964
0.084005
-0.17611
-0.082997
-0.070034
0.2008
-0.12225
-0.10304
0.055025
0.0060072
-0.1822
0.014533
-0.13959
-0.019072
-0.01587
0.10984
-0.075503
-0.018435
0.017642
-0.060056
-0.064145
0.041925
-0.023278
-0.027632
-0.038864
-0.01604
-0.051302
-0.052567
0.064762
0.059205
-0.025506
-0.052744
0.25746
0.083546
-0.11817
-0.080437
-0.08515
0.026752
-0.052731
0.10751
-0.073218
0.1006
0.25998
-0.056059
0.00083571
-0.043197
-0.05272
-0.039329
0.094596
0.09611
-0.0056111
0.048624
0.18546
0.082097
-0.0058175
-0.079574
-0.058015
0.041708
0.0077987
0.013443
-0.11692
-0.075674
0.20078
0.082812
-0.057775
-0.10394
-0.020533
-0.028
-0.041488
-0.03675
-0.012211
-0.038663
0.19022
0.017574
-0.068753
-0.15775
-0.066939
-0.092783
0.071881
-0.084319
-0.12548
0.019879
0.020111
-0.010497
-0.060371
-0.038945
-0.046481
-0.029436
0.054472
0.0030168
0.0037892
-0.03134
-0.12038
-0.1077
0.030198
0.15884
-0.04142
0.036394
-0.050956
-0.010909
0.052283
0.0061638
0.078795
-0.010254
0.13026
0.075359
0.014266
0.052596
-0.0069519
-0.058308
0.086983
-0.054166
-0.026145
-0.051582
-0.011459
0.068125
-0.046209
0.057015
0.047844
0.018377
0.054976
0.0016022
-0.039784
0.0311
-0.047972
-0.037255
-0.10417
0.017899
-0.023485
0.053608
-0.014859
0.090194
0.008042
-0.014935
-0.037185
-0.091706
-0.087296
-0.094199
-0.025316
-0.062323
0.057532
-0.018565
0.034382
0.0029883
-0.033936
0.033375
-0.084247
-0.020775
0.007055
0.020595
-0.004251
0.096662
-0.12058
0.054009
-0.017313
-0.037423
0.0068753
0.026815
-0.051548
-0.025269
-0.049715
0.019569
0.024565
-0.029586
-0.037416
-0.007115
-0.10093
0.054274
0.062451
-0.011844
0.04574
0.1393
-0.08532
0.10295
-0.034948
0.13862
-0.12363
0.017817
-0.013385
0.02927
0.014794
0.073013
0.006154
-0.041574
0.0015692
0.15972
-0.088145
-0.020163
-0.01241
0.078132
-0.031498
0.17113
0.17005
-0.085047
-0.066861
0.1084
-0.12041
-0.090004
0.088714
-0.032716
0.010722
0.14528
0.12171
-0.022902
0.04848
0.053011
-0.015652
0.025386
-0.035221
-0.023378
0.048303
0.15298
0.11129
-0.093903
0.1064
-0.002562
0.025852
0.067073
-0.046583
-0.039313
0.032502
0.023698
0.10137
-0.04004
-0.0026223
-0.063228
-0.067581
-0.030332
0.036712
-0.031141
-0.047239
-0.12983
0.011071
-0.032902
0.0013733
0.022911
0.055847
0.031074
0.072898
-0.01249
0.064343
-0.15095
0.0012764
-0.10399
0.048538
-0.11066
-0.0080271
0.039182
-0.042058
0.1489
0.052331
-0.075499
-0.16413
-0.19813
0.059435
-0.029551
-0.024731
0.070419
-0.046383
0.081622
0.035751
-0.03586
-0.14782
-0.037992
-0.040058
0.091241
0.025306
-0.04096
0.085063
0.058446
0.0070511
0.16846
-0.16343
-0.10875
0.0027107
0.14516
-0.035301
0.018797
-0.039285
-0.038929
-0.072968
0.00788
-0.15851
-0.093063
0.006395
0.065404
-0.05287
-0.093302
1.8638e-05
0.0026937
-0.080312
0.068698
-0.024084
0.060066
-0.11006
-0.029614
-0.036556
-0.10763
-0.031281
0.049368
-0.040146
-0.00033194
0.025963
0.07279
-0.12168
0.083097
-0.054565
0.023837
-0.045605
0.091549
0.084654
0.06869
0.20722
-0.0072335
0.020528
0.015652
-0.015768
0.062784
-0.054543
0.0096897
0.035341
0.052146
0.19159
-0.0018268
-0.032548
0.016603
-0.0045112
-0.083316
-0.0037698
-0.00073472
0.0172
0.052369
0.069691
-0.021181
-0.079529
-0.034147
-0.11431
0.017186
0.0088826
-0.1039
0.021854
-0.0077175
0.068214
-0.069502
-0.1138
-0.093675
-0.00058688
-0.00077677
0.093713
-0.092498
0.0031613
-0.010806
-0.066765
-0.0012918
-0.081933
-0.056366
-0.036773
0.072929
-0.020842
-0.04151
-0.095478
0.061834
0.0026247
0.040928
-0.11678
0.14439
-0.015075
-0.074874
0.047379
-0.06685
0.123
0.0075103
-0.040154
0.020602
0.086804
0.14472
-0.043789
-0.006748
0.024942
-0.066871
0.033816
-0.11995
-0.027343
-0.022741
0.09911
-0.016762
0.034218
-0.080047
0.092272
0.02958
0.061879
-0.061342
-0.049041
-0.0054843
-0.037986
0.0090699
0.023843
-0.0074298
-0.022874
0.017241
0.084964
-0.0015728
-0.098417
-0.070406
0.0054996
-0.014282
-0.013571
0.044936
-0.057513
0.044743
-0.066465
0.0011121
-0.065642
-0.02563
0.02061
-0.066422
-0.087347
0.055812
-0.022443
0.033759
-0.099359
0.06779
-0.035158
0.062459
-0.025426
0.032521
-0.015989
-0.0086632
-0.047921
-0.018104
0.026438
-0.066389
-0.06529
-0.0094026
0.03229
0.11491
0.012151
-0.043237
-0.042655
-0.079712
0.056691
0.043236
-0.0061858
0.062272
-0.020501
0.04107
-0.071525
-0.04669
-0.0042442
0.053503
0.057461
0.16029
0.089146
0.10187
-0.0079081
0.059422
0.04676
-0.061572
0.058893
0.015761
-0.05974
0.21514
0.049614
-0.093405
0.03906
-0.023832
-0.026397
0.0049118
0.094953
0.091764
-0.0012447
0.152
0.072047
-0.11836
-0.021637
-0.055346
-0.096714
-0.060757
0.053165
0.095481
0.018569
0.061037
0.22523
-0.033421
-0.02758
-0.0086259
-0.022061
0.044851
-0.045684
-0.044153
0.018314
0.028144
-0.049613
-0.016423
-0.057027
-0.032651
-0.073222
-0.049911
0.047757
-0.094594
0.046143
-0.042644
0.05904
-0.056716
0.20948
-0.03074
-0.024119
-0.052449
-0.040021
0.014311
0.050438
-0.13051
0.0065723
-0.12084
0.084819
0.020258
0.0088897
-0.0946
-0.043973
0.12105
0.14652
-0.093294
-0.15886
-0.13155
0.050784
-0.012835
-0.019189
-0.026713
0.0045378
0.077269
0.10488
-0.018049
-0.08462
-0.052659
0.027608
0.1461
0.010903
-0.058364
-0.023392
0.063527
-0.12522
0.015005
-0.015177
-0.05045
0.027713
0.11052
0.034767
-0.043727
-0.059588
0.042457
-0.10958
-0.0082925
-0.11219
-0.0047477
0.1146
-0.064555
0.047585
-0.076844
0.068285
-0.013971
-0.052204
-0.03356
-0.04702
0.0021194
0.048028
-0.0078682
-0.092231
0.073169
-0.064792
-0.010866
-0.088761
0.033585
-0.0677
0.013908
0.0085515
-0.042344
0.022594
0.065647
0.0136
0.018612
-0.096501
0.040464
0.10316
0.04461
0.033051
0.0061585
-0.036122
-0.053371
0.015171
-0.011173
-0.057621
0.026917
0.11423
-0.072073
-0.062356
-0.049482
-0.0031439
0.025016
0.041441
-0.10389
-0.12663
-0.057323
0.063181
-0.0075267
-0.057817
-0.054848
-0.0016115
0.05186
-0.069236
-0.0084481
-0.060648
-0.1075
0.0948
-0.042173
-0.01378
-0.063007
-0.025613
-0.10475
-0.0070702
-0.043146
0.054868
0.01046
0.015286
-0.091659
-0.051091
0.0092954
-0.090468
-0.079222
0.037852
-0.0053964
-0.12427
0.042904
0.082616
0.055619
-0.10211
0.087538
-0.075559
-0.062649
0.043623
-0.089618
0.097333
-0.015377
-0.011074
-0.036526
-0.053016
0.15667
-0.05729
0.030396
0.088843
-0.086583
0.1399
-0.063233
0.035552
-0.05405
0.10448
0.057802
0.050277
0.010571
0.061445
-0.013767
-0.0237
-0.045832
-0.17093
0.053921
-0.030166
0.065516
-0.13048
-0.024684
0.013172
0.062285
-0.086012
-0.056343
-0.066158
-0.064291
0.083129
-0.00054044
-0.077888
0.072132
0.091788
-0.0016571
-0.098872
-0.011779
0.00036082
-0.078884
-0.02451
-0.12796
-0.10167
-0.098491
0.047636
-0.041805
-0.13364
0.089686
-0.1317
-0.0042351
-0.014302
0.0029054
0.028894
-0.053921
0.092307
-0.011631
-0.13072
0.065705
-0.045952
0.037222
-0.025876
0.12781
-0.017869
-0.034592
0.083697
-0.14161
0.00025287
0.0054649
-0.099436
0.034074
0.0023648
0.068646
-0.11072
0.013707
0.031631
-0.051652
-0.046695
0.1112
0.11971
0.084521
0.093094
-0.029113
0.0026494
-0.014013
0.041051
-0.078617
0.051431
0.015336
0.17074
-0.0086282
0.048686
0.018499
-0.05722
-0.074261
-0.051747
0.067663
0.047357
0.045929
0.073073
-0.13226
0.030863
0.048056
-0.080926
-0.063911
0.072106
-0.017857
-0.015003
0.022478
0.081449
-0.13998
0.021106
-0.0027176
-0.080706
0.018214
-0.0013284
0.080079
-0.043041
0.029588
0.054453
0.058654
-0.015952
-0.018974
-0.087337
-0.045445
0.074724
-0.0052932
-0.02648
-0.087175
-0.055275
0.028019
0.094046
-0.049356
0.010052
0.029966
0.095914
0.08147
0.022358
-0.15792
-0.068565
-0.021525
0.028108
0.019466
-0.050457
-0.056259
-0.050865
0.024865
0.059732
-0.019805
-0.089523
0.012208
-0.0069395
0.058667
-0.073408
0.072543
0.08086
-0.0095646
0.13337
0.0045437
-0.13104
-0.025984
-0.088477
0.091791
0.066554
-0.024204
-0.072583
0.034017
0.0325
0.0015465
-0.14382
-0.025575
0.0063011
0.088548
0.055755
-0.080287
0.094317
0.075561
-0.0776
0.074868
-0.053749
0.084698
0.1576
0.063287
-0.055119
-0.079062
0.078829
0.085726
-0.019035
-0.040014
-0.11033
0.047468
0.17583
0.057174
-0.073908
-0.0063355
-0.054793
0.045069
-0.022396
0.043695
0.012084
0.052025
-0.039521
-0.11765
-0.081929
0.06008
-0.067864
0.12148
-0.067303
0.016383
-0.12707
-0.055528
0.042772
-0.025871
-0.013908
0.073458
0.098965
-0.046315
-0.05169
-0.051381
0.10778
0.052136
-0.1449
-0.16595
0.0055229
0.0083057
-0.064504
0.017546
0.035698
-0.00098236
0.12294
-0.037517
-0.086753
-0.0087668
-0.090903
0.06434
-0.070062
0.083246
0.093318
0.12043
0.018995
-0.17053
0.067236
-0.051993
-0.019016
-0.099835
0.010388
-0.02228
-0.077185
-0.088832
0.010241
-0.062035
-0.064287
-0.0087241
0.0028889
-0.034595
0.04321
-0.022679
-0.043631
-0.038249
-0.065315
-0.078047
0.016035
0.018755
0.053827
-0.03783
-0.042251
0.029067
-0.015142
0.060609
0.026704
0.02342
-0.094759
0.084459
-0.036589
0.072005
-0.0050622
-0.12863
0.20108
-0.12571
-0.018568
-0.040366
0.081414
0.024283
0.015625
0.034092
0.038323
-0.14547
0.10528
-0.03045
-0.025324
0.049308
0.0065146
-0.084371
0.012731
0.044577
0.011897
-0.083984
-0.058102
-0.032098
0.036165
0.045267
-0.078996
-0.074764
-0.032191
-0.024981
0.070104
0.09879
-0.049394
-0.022595
-0.050236
0.041824
-0.0072346
-0.10468
-0.07952
0.020066
-0.027915
-0.051992
-0.05112
0.068491
-0.12152
0.0084867
0.040938
-0.071135
-0.046612
0.041142
0.026216
-0.048753
-0.095179
0.14688
-0.071836
0.11504
-0.052791
-0.021366
-0.094874
0.073108
0.091062
0.0027253
0.079619
0.092136
0.055429
0.17992
0.040907
0.047671
-0.097479
-0.0088114
-0.062558
0.01865
0.040104
-0.04187
0.18132
0.17573
0.11857
0.10622
-0.032494
-0.084982
-0.045899
-0.017503
0.021426
-0.10583
0.21915
-0.092665
-0.057981
0.05159
0.019358
0.066855
-0.039393
0.035715
0.02044
-0.041956
-0.0043605
-0.095292
0.10131
-0.048952
-0.03034
-0.040901
0.0085214
0.036256
0.029265
0.088471
0.093952
-0.17722
-0.020017
-0.01461
0.023021
-0.0036039
0.089625
0.021374
0.028762
-0.050761
0.06683
0.016485
0.032598
0.0096014
-0.049405
0.020233
-0.037278
0.05599
0.076912
-0.059356
0.039773
0.046065
0.21638
-0.040337
0.003433
-0.0017172
-0.033569
0.011918
0.050855
-0.086587
-0.033334
0.096235
0.02726
0.014992
-0.0067697
0.020526
-0.057819
0.084601
-0.053519
-0.0040408
-0.0082339
-0.066465
0.011096
-0.085904
0.022875
-0.078375
0.010671
0.025583
0.05002
-0.0057193
-0.12969
-0.034441
0.024328
0.11008
0.036943
0.020168
-0.075419
0.023661
-0.048505
0.071824
-0.22528
0.07269
-0.016988
0.0043392
0.020572
0.06545
-0.071678
0.1014
-0.067338
0.0045497
0.053584
0.089507
0.020615
-0.094295
-0.090056
-0.090135
0.061251
0.042438
-0.095169
0.019802
0.034271
0.15048
0.11163
-0.04056
0.035203
0.051517
0.051282
-0.060565
0.041914
-0.046077
-0.0062706
0.13771
0.13114
-0.0076401
-0.11279
-0.037763
-0.013945
0.044472
-0.036858
-0.00075341
0.0068551
0.093936
-0.019716
-0.1394
-0.091817
0.020882
0.085729
-0.028419
-0.084605
-0.027042
-0.018593
-0.043367
-0.16617
-0.035822
-0.007854
0.055184
-0.0042439
-0.023967
-0.098908
-0.029101
0.067366
-0.1131
0.026222
-0.085028
-0.074367
-0.0033377
-0.028484
0.045028
-0.085553
-0.01667
0.062427
-0.16272
-0.078138
-0.022746
-0.0095934
0.072425
0.063968
-0.02295
-0.030241
0.017023
0.14978
-0.10242
-0.063028
-0.032192
-0.0051983
-0.045997
0.067909
0.060902
-0.059467
0.040904
-0.13157
-0.023185
-0.058534
-0.033368
0.022509
-0.061868
-0.017117
0.076052
0.027671
0.03923
0.054065
0.021711
-0.12153
0.12966
-0.0048457
0.026712
-0.051206
-0.15306
0.13066
-0.16668
0.07034
-0.016736
0.059529
0.083559
-0.004714
-0.021604
0.039686
-0.17887
0.048019
-0.14107
0.038131
-0.066111
-0.054561
-0.069603
0.016709
-0.06095
-0.055251
0.068694
0.074346
-0.027894
-0.086824
-0.10319
0.038351
0.017976
-0.043558
0.062755
-0.044806
0.038979
0.013681
-0.079505
-0.011311
0.074908
0.080715
-0.19787
0.021887
-0.056021
-0.017725
-0.034349
-0.13083
0.069516
-0.1141
-0.013459
-0.021125
-0.098796
-0.018902
0.041846
0.026348
-0.0072233
-0.14948
-0.029328
-0.027122
0.048067
-0.040856
-0.022507
0.048112
-0.07773
-0.0024721
-0.0079612
0.013703
0.0097369
0.14905
0.10185
0.021406
0.024045
0.0078619
-0.046342
0.093794
-0.016406
-0.0035729
-0.00021622
0.056516
0.063261
-0.058465
0.1018
-0.0055644
-0.070511
0.050688
-0.079099
-0.019872
-0.053761
0.075607
-0.059573
0.0083778
-0.0086965
0.052437
-0.015077
0.064652
-0.0097951
0.0095545
0.0061793
0.018883
-0.11335
-0.020413
-0.022793
-0.047434
0.037546
-0.05665
0.05153
-0.027477
-0.0043423
0.059848
-0.071612
0.03833
0.042195
-0.063806
0.0046219
-0.089013
-0.072202
-0.041648
-0.13005
0.039526
0.075359
0.030886
-0.051359
-0.0022911
-0.050273
-0.071356
0.11735
0.077747
-0.020089
0.037193
0.038035
0.13533
-0.033931
-0.02582
-0.057123
-0.07897
0.039218
0.050434
-0.085982
-0.01455
0.12185
-0.089282
0.10565
0.039793
0.080792
-0.043086
0.10134
0.1023
-0.026968
-0.11721
0.042813
0.064216
0.066302
-0.096787
-0.012091
-0.037755
0.018803
-0.036596
0.045118
-0.17369
0.090892
-0.059551
0.04701
-0.072847
0.0016024
0.012103
0.08666
-0.00049431
-0.085584
0.048527
0.1855
0.09544
0.015599
-0.089435
-0.048261
-0.065072
-0.024976
-0.04711
-0.071129
-0.038152
0.20686
-0.037085
-0.042841
0.062782
0.066271
0.031898
-0.018522
-0.041439
-0.029728
0.037158
0.15919
0.060415
-0.056366
-0.10524
-0.030069
-0.0072418
0.03816
-0.1518
0.10611
-0.093691
0.21539
0.13641
-0.031577
0.0067922
-0.056526
0.021699
-0.042556
-0.076937
-0.065145
-0.064026
0.038815
0.026404
-0.09359
-0.10401
-0.034626
0.096931
0.035762
-0.061835
0.010294
0.020989
-0.1031
-0.049466
-0.09047
0.05374
0.0065192
0.070353
-0.059253
-0.036552
-0.00035459
0.0030577
0.0017438
-0.050828
-0.057606
0.013974
0.026876
0.013637
0.10392
-0.024631
-0.001157
-0.013857
-0.072875
0.0060903
0.046481
-0.020771
-0.051941
-0.03585
-0.033785
-0.0060148
4.0675e-05
0.022139
-0.13262
-0.071307
0.017282
0.038214
-0.024835
-0.021221
-0.017004
-0.057017
-0.074131
-0.0033803
0.039787
0.016169
0.059252
-0.045244
-0.011045
-0.057362
0.018714
0.042635
0.048024
0.098185
0.084577
-0.062955
0.087978
0.02001
0.038472
0.0015713
-0.018511
0.25204
-0.10047
-0.019247
0.075089
0.050431
-0.00077476
0.043925
0.02424
-0.051261
-0.19937
-0.0093042
-0.14336
-0.08388
0.01965
0.10015
0.065582
0.037891
-0.10614
0.069773
-0.069823
0.064306
-0.077016
0.0040116
0.016003
-0.045905
-0.10316
-0.043166
-0.0019015
0.090015
0.014174
-0.02775
0.058391
0.021969
-0.077567
-0.049529
-0.15701
-0.070009
-0.056054
-0.029416
0.046971
-0.18883
0.0085964
-0.16877
0.032036
-0.012793
-0.052394
-0.030432
0.06422
-0.050212
0.037963
-0.11857
0.12149
0.012731
0.11488
0.01035
0.11437
-0.0647
-0.041273
0.017878
-0.0050516
0.040029
0.074477
0.25392
0.31494
-0.011521
-0.024825
-0.056653
-0.090121
-0.020926
0.0088739
-0.055447
-0.062621
0.045866
0.066873
-0.045368
0.017008
-0.099831
0.0064628
-0.036722
-0.070419
0.10067
-0.068068
0.19161
-0.0078415
0.06668
0.011337
-0.047412
-0.09644
0.0561
0.045626
0.031694
-0.068585
0.071706
-0.075286
0.0019178
0.039374
0.060198
0.0051828
-0.079274
0.073425
-0.0662
0.063242
0.018282
-0.072192
0.048485
-0.038192
0.0049059
0.0076353
0.0041524
0.0020089
-0.0049381
-0.0042413
-0.0083951
0.0082673
0.016139
0.0056592
-0.0099415
0.015887
-0.0035205
0.11605
0.014652
-0.095604
-0.042483
-0.013998
0.033563
0.012915
0.036106
-0.0047985
-0.046693
0.049108
1.7271e-05
-0.16358
0.046962
0.03798
0.00016323
0.06823
-0.060488
0.0064517
0.039772
0.062077
0.092918
-0.021301
-0.099122
0.22621
0.069749
0.018634
0.07927
-0.070883
0.047228
0.05306
-0.020127
-0.033441
0.065649
0.28156
0.071054
-0.07371
-0.094173
-0.066236
-0.054808
0.14114
-0.048901
0.020201
-0.039341
0.21064
0.034743
-0.010686
-0.096962
0.016119
-0.057997
0.050873
-0.028114
0.10491
-0.085209
0.28805
0.037964
-0.090438
0.022857
-0.0051298
0.073512
0.03148
-0.036252
-0.0046463
-0.061214
0.302
0.045429
-0.097828
-0.063094
-0.099337
0.087925
0.04453
-0.082848
-0.010503
-0.051946
0.19374
0.10582
-0.044948
-0.010218
-0.018207
0.032176
-0.060443
-0.02578
-0.034716
-0.0026905
-0.0091932
-0.028185
-0.078893
-0.063462
0.075198
-0.050374
0.063153
-0.21148
-0.018394
-0.067521
-0.1641
-0.10573
-0.11162
0.066942
0.025747
-0.064961
0.010531
-0.056347
0.066784
-0.027833
-0.0068412
-0.0059025
-0.035736
-0.0063315
-0.092968
-0.081894
0.065167
-0.047507
0.082532
0.0017443
0.053944
-0.010546
0.03232
0.030894
0.058787
-0.071124
0.0083066
0.059409
-0.068094
0.11399
0.042307
-0.030685
-0.04732
-0.033688
-0.048638
-0.0055368
0.028093
-0.045883
-0.031494
0.05554
-0.050488
-0.027495
-0.032361
-0.11784
-0.098576
0.0027851
0.048681
0.12835
0.071683
0.067933
-0.030548
-0.078314
0.008405
0.03237
0.081731
-0.047767
-0.083247
0.15612
-0.16573
0.048324
-0.01537
0.16515
0.038622
-0.11077
0.025747
-0.051467
-0.18871
0.081073
-0.12943
0.056598
0.023943
0.073002
0.011578
-0.011066
-0.069767
0.074789
0.073439
0.066555
0.007673
-0.059251
0.053031
0.095412
-0.092665
-0.0073471
-0.026665
0.072121
-0.0093014
0.023871
0.083625
0.0056081
-0.081172
0.069256
0.032976
-0.081442
-0.10098
0.012884
0.076567
-0.072601
0.058715
-0.062028
-0.0086322
0.084033
-0.23994
-0.094749
-0.024802
0.090168
0.056806
-0.30525
-0.074265
-0.12684
0.069316
-0.034517
-0.022393
0.0096226
-0.096305
0.048762
-0.074406
0.036149
0.10901
-0.031938
0.17826
-0.051715
-0.060821
-0.12202
0.061241
0.077324
-0.067082
0.099412
0.024505
0.17046
0.27505
0.075375
-0.018237
-0.034975
0.063686
-0.026345
-0.072048
0.01325
-0.036361
0.12952
0.088638
0.049577
0.022143
-0.10615
-0.033673
-0.074611
-0.050282
0.051977
0.0060165
0.0082211
-0.14918
-0.098911
0.072302
0.057676
-0.087699
-0.074176
-0.10344
0.029433
-0.146
0.0077785
-0.10352
-0.0056857
-0.035236
-0.017573
-0.053535
-0.055952
0.02026
0.02326
-0.10015
0.16769
-0.14696
0.069111
0.033627
0.054126
-0.042247
-0.086854
3.6383e-05
0.032064
0.0051469
0.026814
0.063311
0.053511
-0.054569
-0.0046257
-0.059999
-0.084149
0.20816
-0.006752
0.049012
-0.06681
0.076039
0.13099
0.060636
-0.083508
-0.028266
0.073868
0.11514
0.098223
-0.051683
0.058354
0.18239
0.049428
-0.031262
0.064677
-0.071318
-0.0027173
0.12618
-0.0067031
0.10493
-0.046345
0.45236
0.023427
-0.021366
-0.080666
-0.04906
0.022196
0.22371
0.036307
-0.019398
-0.039068
0.44526
0.011492
0.041581
0.028996
-0.051279
-0.063555
0.004947
-0.051707
0.074892
-0.069381
0.35726
-0.042454
-0.096428
0.05276
0.073152
0.058397
0.061324
0.078203
0.034433
-0.042774
0.22031
0.034756
-0.0057498
0.052847
-0.083105
-0.067096
-0.037056
-0.0098986
-0.013468
0.070335
0.1766
0.061202
-0.11924
-0.081034
0.050068
0.06281
-0.089027
0.0029293
0.040049
-0.070755
-0.0027932
0.068001
-0.11337
-0.060351
0.040475
0.02223
0.14984
-0.096947
0.10816
-0.053073
-0.1678
0.010124
-0.11012
-0.016154
-0.019834
0.0121
0.05827
-0.12778
-0.015437
0.024296
-0.078343
0.035552
-0.081552
-0.017674
-0.013453
0.065659
0.055273
-0.097176
0.030804
0.080358
-0.051077
-0.060122
0.039653
0.0048727
-0.040789
-0.037105
0.050994
-0.08743
-0.02528
-0.098948
0.19073
0.028428
0.032188
0.064112
0.056778
-0.04605
0.026051
-0.12563
-0.043038
0.078477
0.053756
0.0057466
-0.10909
-0.071723
0.068523
-0.081704
0.044805
0.013683
0.032249
-0.02878
-0.028671
-0.028077
-0.070292
0.012354
0.06715
0.077577
-0.010252
-0.057505
-0.021483
0.082722
-0.046675
-0.080853
0.051177
-0.067372
-0.031876
-0.054652
-0.070484
0.23917
-0.064819
0.066837
-0.046741
0.15386
-0.024266
-0.017465
-0.059423
0.10808
-0.18632
0.011607
-0.2083
-0.080827
-0.0048019
-0.067596
0.040184
-0.069162
0.029818
0.10326
-0.09939
-0.077024
-0.050743
-0.024115
0.068692
-0.039123
0.0049674
-0.085488
-0.057133
0.0027112
-0.014462
-0.029938
0.042606
0.051089
-0.078926
0.094788
-0.068737
0.051902
-0.00097394
-0.025998
0.010591
-0.082511
0.042238
0.024152
-0.0066898
-0.056029
-0.25265
-0.116
-0.012582
0.023237
-0.076772
-0.27068
0.020589
-0.11106
0.030759
-0.010755
-0.11584
0.045872
-0.00085943
0.10054
-0.094336
-0.13746
-0.035818
-0.091031
0.21294
0.0043628
0.12804
0.055976
-0.079985
0.097428
0.0062031
0.043961
0.045804
0.059284
0.19124
-0.060514
0.054727
-0.056255
0.05677
0.060337
-0.10984
-0.062442
-0.09608
0.053452
0.11215
0.015527
-0.028511
0.058201
0.038881
0.0043904
-0.076072
-0.0013967
-0.090001
0.052475
-0.01656
-0.013594
0.073379
-0.012027
0.067967
0.030353
-0.066358
-0.030984
-0.018165
0.046984
-0.14104
0.0092569
-0.063212
0.035837
0.057614
-0.079137
-0.087944
0.13715
-0.063752
0.058808
-0.085909
-0.028391
0.027962
0.041918
-0.014293
-0.062606
-0.068004
-0.052394
-0.087178
0.02157
-0.12983
-0.0070723
0.016525
0.039432
-0.007959
0.015727
0.13058
0.025249
-0.01571
0.12905
-0.057134
-0.0081812
-0.020362
0.067005
-0.02594
0.08117
0.072079
0.086535
-0.16057
0.035423
0.10009
-0.057829
0.013733
-0.018965
-0.014318
0.050373
0.14639
0.058957
0.03852
-0.18932
0.39243
0.014833
-0.11547
0.027072
-0.0076461
0.083078
-0.014446
0.13742
-0.011518
0.03769
0.33246
-0.050475
-0.10392
-0.06139
-0.056365
0.091955
-0.072754
0.072247
-0.067709
-0.019305
0.17491
-0.028976
-0.08878
-0.00032584
0.011387
-0.074912
-0.10827
0.002234
0.00074065
-0.070306
0.050136
-0.045463
-0.04619
0.015949
0.086044
0.040995
-0.015427
0.023918
0.10167
-0.039967
0.044773
0.12588
-0.043558
-0.06424
0.0039083
0.077076
-0.0946
0.070708
0.062031
-0.03302
-0.061759
0.01111
-0.056599
-0.077078
0.042864
-0.057001
-0.047988
-0.054984
0.087182
-0.035503
-0.22071
-0.11064
-0.1132
-0.082238
-0.00047641
0.040834
-0.029283
0.022598
0.097366
-0.10072
-0.10959
-0.014996
-0.01555
0.0086405
-0.035029
-0.080173
0.057999
-0.081722
-0.011861
-0.010275
0.033419
-0.015096
-0.074739
0.062292
0.013289
0.05245
0.03204
0.0040663
0.0020755
0.029638
0.037942
0.020027
0.007129
-0.092137
-0.072261
0.065986
0.084843
-0.02474
-0.055585
0.02563
-0.016535
-0.060008
-0.10037
-0.047246
-0.027268
-0.014862
-0.045042
-0.049104
-0.072689
0.067982
-0.10505
-0.020728
0.015588
-0.10626
-0.05811
0.001258
0.056773
-0.034354
0.068608
0.093965
-0.076175
-0.077504
0.10829
0.042429
0.010531
0.039785
-0.069534
0.25964
-0.070244
0.0036245
-0.025245
0.067938
0.073474
-0.018131
0.063186
-0.053957
-0.19166
0.033411
-0.23326
0.018897
-0.0012295
-0.018638
0.053025
-0.038694
0.038738
-0.024076
-0.0077378
0.062245
0.05538
0.075363
0.06
0.013302
-0.053371
-0.061391
-0.042381
0.084065
0.027189
0.05134
-0.078347
-0.098183
-0.081812
0.055031
0.052865
-0.10638
0.039496
0.11311
0.0015984
-0.063974
-0.0057455
0.053167
-0.080728
-0.045405
-0.15055
-0.049227
0.039579
0.075967
0.010458
-0.26317
-0.04461
-0.031259
0.1487
-0.027846
0.018285
0.047797
-0.027661
0.083175
-0.09347
-0.037746
-0.17506
-0.010716
0.17023
0.037809
-0.059256
-0.08831
-0.09112
-0.012511
-0.098895
-0.046159
0.067239
0.10772
0.19647
0.0087508
-0.015381
0.0084908
-0.027209
0.017187
-0.032359
-0.0031031
-0.044888
0.097716
0.088855
0.024894
0.060505
-0.055095
0.061411
0.041931
-0.030173
0.028075
-0.13189
0.084777
0.049784
-0.10707
0.1055
0.059027
-0.019864
-0.065031
-0.043584
-0.078529
-0.086243
-0.087232
0.0053168
0.02709
0.034478
-0.075445
0.059532
-0.026479
-0.07369
-0.0093539
-0.066985
0.0073698
-0.26386
-0.02165
-0.036195
0.032878
-0.04689
0.075838
-0.19074
-0.070172
-0.056215
0.10257
-0.27414
-0.039854
0.050057
-0.013388
0.056697
0.079215
-0.1453
-0.037145
-0.034694
0.053182
-0.21797
-0.020454
-0.10596
0.0052641
-0.063726
0.048705
-0.093201
0.13519
-0.050842
-0.03995
0.044091
-0.014221
-0.00032886
0.018307
-0.00042715
-0.029336
-0.10654
0.11438
-0.095366
-0.18648
0.074853
-0.13444
-0.032859
-0.082253
0.053533
0.091401
-0.17562
0.034774
0.024127
-0.22657
0.077177
0.070921
-0.022221
-0.009194
0.061349
0.043051
-0.068153
0.057013
0.046373
-0.07143
-0.072681
-0.021945
-0.14922
-0.091702
-0.019957
-0.079049
-0.05059
0.01714
0.092056
-0.075372
0.020399
-0.014663
-0.1531
-0.025725
-0.045593
0.044327
-0.039931
0.060358
0.14311
-0.14135
-0.064356
0.066394
-0.078088
0.039782
-0.066668
-0.034088
-0.024506
0.010696
0.10308
-0.0082565
-0.090064
-0.0043783
0.015206
-0.073462
0.022714
0.039614
-0.090928
-0.00029878
0.073127
-0.02652
-0.0019513
-0.0015361
-0.04963
0.064365
-0.084883
-0.017459
0.064138
-0.077798
0.11833
-0.016281
-0.023166
-0.045174
0.025206
0.04278
0.043212
0.060766
0.037463
-0.0053715
0.11768
0.050755
0.10152
-0.030291
-0.083866
-0.079635
-0.037881
-0.03689
0.038026
-0.061272
-0.0040264
-0.085918
-0.025652
0.018479
-0.052201
-0.069211
0.031273
0.021215
-0.053276
0.011212
-0.037516
0.01798
0.034304
0.05524
0.016568
0.036428
-0.058122
-0.0016133
0.064905
0.02249
-0.098086
0.077787
-0.16036
-0.069552
-0.081195
0.03324
0.077602
-0.022984
0.10382
-0.0070373
0.051058
0.070252
-0.032639
0.032298
0.003726
-0.045757
-0.060651
-0.052064
-0.12613
0.20631
-0.055254
0.0025461
0.046746
0.10753
0.13216
-0.015751
-0.064669
0.042276
-0.33377
0.079597
-0.21463
0.001971
0.0076411
0.030686
-0.022656
-0.017569
0.060179
-0.0070029
-0.072823
-0.03917
-0.052058
0.024794
0.016298
0.025605
-0.050189
0.007266
-0.066207
0.093717
-0.0383
-0.002151
0.0046584
-0.0020022
-0.090391
-0.030885
-0.10594
-0.03831
-0.037314
0.035594
-0.0016308
0.054231
-0.030617
-0.11292
0.057973
-0.062301
-0.18473
0.039325
0.072784
-0.047229
-0.0017163
-0.14506
-0.082969
-0.02573
0.074245
0.0046646
-0.0855
-0.093902
-0.027308
0.027962
-0.055634
0.02825
-0.04642
-0.021629
0.1534
0.014681
-0.07785
-0.017479
-0.04537
0.00029816
0.059541
0.052289
-0.0068387
-0.0068222
0.25528
0.0085311
0.014801
-0.0010976
0.032144
0.025738
-0.046335
0.033451
0.041055
0.066808
0.16107
0.093005
0.019658
0.06109
-0.046989
0.008619
-0.098129
-0.014771
-0.059776
0.0041363
0.13919
0.016441
0.014939
0.062469
-0.084
0.068575
-0.065333
0.044405
-0.17095
0.0035343
-0.0036599
-0.054001
0.044744
-0.0033936
0.075426
-0.025442
-0.016096
-0.058252
-0.16249
0.046364
-0.18758
-0.075037
0.080176
-0.048645
0.0099163
-0.055201
-0.12276
0.10284
0.028265
0.04284
-0.36964
-0.033766
0.11016
-0.10882
0.074588
-0.06968
-0.03552
-0.0013282
0.087756
0.13191
-0.24083
-0.0049149
0.030432
-0.050441
0.023688
-0.074471
-0.11844
0.1616
0.1118
-0.080972
-0.06368
-0.030503
-0.027197
0.0099516
-0.039751
-0.053307
-0.070476
0.052438
-0.0014273
-0.12206
0.061739
0.13197
-0.049454
-0.060332
0.046642
-0.086219
0.055446
0.091286
0.066804
-0.15297
0.020902
-0.0007637
-0.027834
-0.0048847
-0.047528
-0.020938
0.0033154
0.081343
0.011705
0.011506
-0.0009818
0.041572
0.017543
-0.010135
-0.067587
0.021196
-0.052216
0.085213
0.0083593
-0.082372
0.021408
0.075062
0.029848
0.010495
0.056605
0.042031
0.02525
0.015874
0.063929
-0.013132
0.10045
0.079794
0.064848
-0.074148
0.029197
0.028665
-0.04235
0.010264
0.030665
-0.10727
0.097091
-0.0067098
-0.019168
-0.00087144
0.043031
-0.002347
-0.063442
0.015358
-0.0063847
0.011592
0.015741
-0.06928
-0.079544
0.020708
0.049606
0.027167
0.0099278
0.004509
0.010905
-0.043094
0.047173
0.029026
0.013895
0.02501
-0.017725
-0.086318
0.090808
-0.065887
0.11478
-0.027
0.053166
-0.11364
-0.089531
-0.069005
-0.070052
-0.049166
0.12856
-0.012725
0.09877
0.022316
-0.087458
0.030343
0.012632
0.069465
-0.045209
-0.04599
-0.01311
-0.064505
-0.02525
0.053887
-0.0054368
-0.039412
-0.060824
-0.077328
-0.022656
-0.033908
-0.030116
0.036774
-0.072081
0.039173
0.064221
0.0076692
-0.058349
0.060066
0.025572
-0.025474
-0.027369
0.0078192
-0.026233
0.071563
-0.073369
-0.061946
0.045664
0.0055593
0.012281
0.047999
0.0027886
0.1959
-0.079548
0.056162
-0.030618
0.13314
0.1526
0.0045095
0.066798
0.099149
-0.16412
0.013699
-0.25299
-0.018605
-0.055587
-0.052705
-0.058839
-0.11546
0.031728
-0.0068932
-0.099881
0.084681
0.074879
0.013904
0.075451
-0.072384
-0.035809
-0.040466
-0.035796
0.09499
-0.015062
-0.025673
-0.079885
-0.037483
0.067728
-0.042511
-0.13181
-0.069613
0.046434
-0.031291
-0.089504
-0.1625
-0.022036
-0.093404
0.05184
0.02451
-0.097213
0.023023
-0.023154
0.063437
-0.069838
-0.12337
-0.046196
-0.0058514
0.14296
-0.033464
-0.0092108
0.048952
-0.078374
-0.019486
-0.021269
0.037232
0.01431
0.087716
0.2616
-0.077266
0.036026
-0.048076
0.051128
0.031123
0.076542
-0.014761
0.0030433
0.13065
0.17476
-0.019539
0.029918
-0.071375
-0.05779
-0.071851
-0.11599
0.0063302
-0.057492
0.041624
0.1428
-0.023586
0.037439
0.096623
-0.064173
0.073135
-0.080572
0.070239
-0.14445
-0.024282
0.02294
0.022041
0.10494
0.05582
-0.0087874
-0.015765
-0.0085638
-0.027513
-0.13599
0.040191
-0.12463
-0.0028316
0.004189
-0.072866
0.05548
-0.031028
-0.084549
-0.061184
0.063365
0.061936
-0.19175
-0.03495
0.05479
-0.061604
-0.05279
-0.076076
-0.044504
0.031381
-0.05157
0.18881
-0.22728
0.091937
0.061013
0.036536
0.075799
-0.043479
-0.020454
0.073891
-0.0032355
0.025715
-0.069986
0.025966
0.026255
-0.0049228
-0.083487
0.0039468
-0.046103
0.047442
0.070554
0.022798
0.15333
0.008897
-0.070785
0.014666
-0.073451
-0.048767
-0.14131
0.1324
0.055585
-0.12428
0.13292
0.072219
0.01395
0.082054
0.047413
0.032754
-0.058254
-0.017412
0.023619
-0.15795
0.10615
-0.07871
-0.031266
-0.073869
-0.062379
-0.053251
-0.023862
0.03096
0.10543
-0.031807
0.090404
0.15344
-0.020212
-0.068876
-0.066251
0.00064188
-0.096152
0.07569
0.084112
0.0062582
0.11876
0.038783
-0.015014
-0.012016
0.0071005
0.047632
0.036753
-0.0069007
-0.005091
0.030046
0.072539
-0.060442
-0.0079449
-0.065557
-0.0012893
0.080035
-0.049929
-0.074837
0.013165
-0.034921
0.097012
-0.0021568
0.041561
0.042953
0.025468
0.058395
-0.088499
-0.0085383
0.020955
-0.024869
0.13524
-0.065828
-0.098333
-0.047227
-0.015871
-0.012268
0.10307
-0.067816
0.072007
-0.10586
-0.057049
-0.028777
0.054862
-0.014321
-0.037742
0.026929
-0.012
-0.011645
0.083314
0.035034
-0.053905
-0.071902
-0.021683
0.01297
0.075693
-0.022064
0.026324
-0.029861
0.010893
-0.030772
-0.0040295
0.018551
-0.091182
-0.088243
0.0020618
0.043128
0.031102
0.029842
-0.026496
-0.032052
0.14685
0.092023
-0.069688
-0.041351
-0.063711
-0.061647
0.060779
0.095659
0.054974
0.10636
0.049159
-0.068362
-0.010341
-0.058056
0.02408
0.072171
-0.063535
0.21628
-0.16167
0.088684
0.022508
0.078899
0.13839
-0.08919
-0.075966
0.030229
-0.24034
0.02917
-0.18762
0.15339
-0.01256
0.073532
0.045342
-0.099179
0.06543
0.067
0.065106
-0.080619
-0.0024225
0.028383
0.009384
-0.046917
-0.044721
-0.0074557
-0.097246
-0.023209
-0.043004
0.016052
0.009683
0.011328
-0.048877
-0.04847
-0.095856
-0.12932
0.062755
-0.040857
0.030585
-0.053629
-0.091774
-0.1075
0.15157
0.039418
-0.08011
-0.039042
0.02752
0.0076911
0.0083975
-0.048105
-0.0021837
0.034672
0.14508
-0.029474
0.002977
-0.07067
-0.098883
-0.061942
-0.031376
-0.019854
-0.024518
0.01691
0.24672
0.10428
-0.056381
-0.034617
0.035451
-0.0028434
0.045426
0.029616
-0.048006
0.073226
0.17939
0.023985
0.0076998
0.086447
4.2532e-05
-0.072599
-0.046774
0.01784
-0.024182
-0.0039688
0.0059691
-0.016191
0.077549
-0.0085844
-0.040117
-0.065652
0.047477
0.0034918
-0.086989
0.063957
-0.010831
-0.021549
0.012646
0.04404
-0.074215
-0.07541
-0.0052582
-0.0092545
-0.020182
0.080618
-0.25052
-0.0079195
0.010707
0.065913
0.031725
0.074703
-0.075401
0.047796
0.02566
0.069875
-0.1466
0.011239
0.092345
0.065643
-0.043744
-0.072279
-0.037692
-0.020493
0.070174
0.12783
-0.038911
0.067501
0.098666
-0.012798
0.059299
-0.052335
-0.03672
0.099534
-0.018146
0.057833
0.10652
0.039572
0.048397
0.053624
-0.031292
0.0010547
-0.039003
0.036655
-0.11407
-0.048573
0.2618
0.0086224
0.06407
-0.037704
-0.055343
-0.087348
-0.023158
0.017608
0.069285
-0.073309
0.20332
0.12221
0.065707
0.0059882
0.015556
0.05501
-0.031475
0.099709
-0.0038696
0.038992
0.049685
0.12475
0.083534
-0.073327
-0.039949
0.040867
-0.056744
0.030101
0.053444
-0.042384
-0.070875
0.096743
0.052803
-0.03683
0.01988
-0.011375
-0.0017005
0.0059732
0.041151
0.047685
-0.010363
0.017461
0.11448
0.05093
-0.044966
-0.077682
0.024621
-0.048845
-0.033828
0.060188
0.022711
-0.10794
-0.017831
-0.02006
0.0050298
0.04144
0.064179
-0.014354
0.060162
0.068798
0.048223
-0.07272
-0.056092
0.065923
-0.054795
0.076947
0.00080065
-0.046698
-0.04035
0.0094015
0.086128
-0.027279
0.049515
0.072247
0.0055048
0.087972
0.0010912
-0.029735
0.042897
-0.040701
0.027716
0.025456
-0.12316
-0.024469
-0.0026529
-0.0795
0.056237
-0.0053205
0.019455
0.03717
0.091811
-0.08868
-0.017922
0.0014488
0.0027402
0.07689
0.015772
-0.057537
0.043162
-0.069328
0.18009
-0.046231
0.056744
0.054797
0.039972
0.080635
0.033213
0.06971
0.013989
-0.010237
0.076348
-0.066508
0.047461
-0.10616
0.060896
-0.039764
0.0025785
0.10012
-0.067882
0.019204
-0.042296
0.019095
-0.049973
-0.12448
-0.032996
0.0080706
-0.077125
0.093269
-0.13073
-0.0048831
0.053305
-0.0071433
0.06657
-0.0020611
0.015505
0.056475
-0.10497
-0.022277
-0.21754
0.11682
0.019565
0.0034156
-0.0077385
-0.051386
-0.052959
-0.054021
-0.027386
0.074453
-0.0034981
0.033012
0.054812
0.037399
-0.017124
0.030043
0.05092
0.10259
0.10952
-0.016914
-0.00087099
-0.11543
0.046278
0.13511
-0.070316
-0.11392
-0.069259
0.083043
-0.093163
-0.14203
-0.11105
-0.10227
-0.031012
0.099096
-0.22426
-0.093076
-0.059231
-0.015589
0.074566
-0.045739
-0.069042
-0.16373
0.061477
-0.052204
0.075162
-0.065648
-0.05631
0.022829
0.066489
0.13782
-0.091968
-0.0023096
0.1794
-0.02821
0.0040652
-0.11603
-0.0064381
-0.025326
0.0002885
-0.042674
-0.020769
0.056081
0.11557
-0.057571
0.087199
-0.0059893
0.034124
0.081044
-0.066549
-0.036024
-0.096539
0.02167
-0.051719
-0.019303
-0.028006
-0.027427
0.013737
0.087626
-2.4778e-05
0.060007
-0.10906
-0.0023204
-0.10916
-0.0018458
0.014062
0.070877
-0.038333
-0.0040158
-0.068464
0.042191
-0.015133
0.09294
-0.1639
0.020658
0.13061
0.050822
-0.063908
-0.066831
-0.010655
0.039154
-0.036332
0.034103
-0.058541
0.05796
-0.026582
-0.075606
-0.050504
0.034305
-0.092255
-0.030226
0.036992
0.14654
0.070628
-0.0010522
0.11117
-0.029913
-0.057958
-0.0070219
-0.064028
0.04603
0.034739
0.086901
0.1918
0.037704
0.040811
0.077387
-0.046664
0.030444
-0.00094434
0.065454
-0.038102
-0.030581
0.21065
0.043734
0.0020408
-0.014427
0.065876
0.047068
-0.075308
0.053759
-0.01715
-0.048336
-0.0043754
-0.014249
0.072609
0.032265
-0.04118
0.026455
-0.036302
0.086958
0.057346
0.0029809
-0.040433
0.065877
0.027697
0.025405
0.029986
-0.080669
0.0064626
-0.024559
-0.050482
0.011069
-0.052735
-0.001131
0.03848
-0.034949
0.068908
0.063346
0.0087921
0.067171
0.050688
-0.041994
-0.099085
-0.055918
0.026322
-0.016075
-0.041961
-0.010747
0.020204
0.0059252
0.059298
-0.036939
0.029327
0.05072
-0.037034
0.046042
0.030247
-0.060214
-0.057398
-0.099037
0.039512
-0.0084732
0.15264
-0.089656
0.015439
0.044378
0.047976
-0.081271
-0.0012038
0.032923
-0.012664
0.022124
0.20741
-0.11036
0.0032569
-0.054483
-0.066121
-0.04297
0.011028
0.002394
0.11313
-0.017434
0.18465
-0.036333
-0.077051
-0.029317
0.0061018
-0.057682
0.081955
-0.031815
0.08375
0.14368
0.092257
-0.060325
-0.070811
-0.061828
-0.013194
-0.066107
0.0037732
-0.076361
-0.0050592
0.022636
0.087125
0.037254
-0.0017405
-0.10538
0.018375
-0.023348
0.0068545
-0.0793
0.019703
0.034685
0.19712
0.0033804
-0.055897
0.031734
0.010735
0.071289
0.048367
0.0559
-0.085099
-0.1367
-0.011781
-0.0010541
-0.035331
-0.082973
-0.0199
0.010972
-0.16013
0.13151
-0.13883
0.076847
-0.016217
-0.0044582
0.0052674
-0.053318
-0.064651
0.019683
-0.16919
0.02946
-0.11308
0.11669
0.011099
0.033623
-0.040567
0.016034
-0.0084165
0.1108
-0.077362
0.083685
0.0085039
0.015732
-0.025922
-0.012292
-0.028202
0.038726
0.015677
-0.035564
0.082267
-0.048251
0.037467
-0.02484
0.0080858
-0.0021696
-0.041621
-0.0037193
-0.014602
0.085338
0.051381
-0.04099
-0.0065187
-0.14056
0.05406
0.019796
-0.15673
0.01098
-0.10485
0.096815
0.062594
-0.1685
0.01062
-0.041173
0.16481
-0.052398
0.01629
0.043189
-0.095269
0.10726
-0.019925
-0.016768
-0.0047419
-0.052208
0.13097
-0.0082141
-0.015017
-0.01564
-0.0031898
0.08684
-0.0028101
-0.014275
-0.05062
0.0016254
-0.022119
0.029974
0.022138
-0.011058
-0.082179
0.021226
0.044462
0.063035
-0.051622
0.013258
0.0040869
0.070638
0.078275
0.019928
-0.0027621
-0.010804
-0.0089861
0.028902
0.027209
-0.014927
-0.11911
-0.055732
0.012793
-0.06207
0.053136
-0.072544
0.0046655
0.0048803
-0.03029
0.09973
-0.068042
-0.040542
0.042906
0.021955
0.025964
0.054513
-0.052205
0.021856
-0.0051242
0.14686
0.034223
0.14774
-0.014318
0.0077023
-0.018458
-0.069495
-0.038888
0.076198
-0.0036623
0.11572
0.11215
0.031222
0.055392
0.038792
-0.097728
-0.0020224
-0.067481
-0.04143
0.029347
0.022598
0.25452
0.10977
-0.042829
-0.097926
0.029636
0.0766
-0.096231
0.043561
-0.033831
-0.033846
0.24324
-0.010242
0.059158
-0.089304
-0.068933
-0.066715
-0.071633
-0.047931
0.020883
-0.065876
0.064972
0.1484
0.034207
0.043232
-0.093637
-0.044207
-0.022318
0.074669
0.11263
0.045785
-0.013841
0.076617
0.065609
0.031075
0.021489
0.022566
-0.044458
-0.0088055
0.058195
0.045498
-0.0069912
-0.061394
0.093984
-0.035578
0.0027879
0.088868
-0.017024
-0.05075
0.010787
0.050903
0.15196
-0.091372
-0.039466
0.00083586
-0.024601
0.079241
0.041207
-0.027624
0.057629
0.082727
0.054463
-0.048184
0.035279
-0.049406
-0.011525
-0.030247
0.030518
-0.084055
0.018902
-0.022923
0.13383
-0.024398
-0.022332
0.027584
-0.044042
-0.014858
0.00097993
0.0017162
-0.0030633
-0.094827
0.15091
-0.031216
-0.045021
-0.11392
-0.086782
0.011924
-0.04744
-0.039697
-0.068859
-0.083302
0.096343
-0.11823
-0.074277
-0.030816
-0.073704
0.086403
-0.072821
-0.034723
0.041751
-0.061332
0.17675
-0.044396
-0.070679
0.045103
-0.091181
0.015557
0.018002
-0.0016093
0.081328
-0.012172
0.14004
-0.014642
0.019794
-0.079662
-0.099743
-0.063553
0.060659
0.034238
0.10002
-0.022237
0.020954
0.020014
-0.10759
0.0029359
-0.0045637
0.082819
0.018175
0.067681
-0.08014
-0.10147
0.0031908
0.014085
0.074553
-0.041362
0.05994
0.089448
-0.061222
-0.0064102
-0.2023
-0.084094
-0.10484
0.056543
0.0080921
-0.0037077
-0.043386
0.10283
-0.055374
0.053148
-0.086501
0.054554
-0.0054418
-0.024974
-0.0073059
0.0090379
-0.00057836
-0.059345
-0.018101
-0.065135
-0.061099
-0.010842
-0.053941
0.08263
0.013325
0.049666
-0.023238
0.0037929
0.081067
-0.088831
0.017343
-0.098954
-0.04686
0.10391
0.0080933
-0.10365
-0.073131
-0.058204
-0.011856
-0.0092246
0.028285
-0.047806
-0.052967
0.11602
-0.14625
-0.12451
-0.045213
0.085301
0.042016
-0.031103
0.0072556
-0.0078269
0.15188
-0.02137
-0.080953
-0.1026
-0.014584
-0.033955
0.020804
0.037664
0.058224
0.0014501
0.050372
0.024448
0.014683
-0.11919
-0.035495
-0.0069227
-0.015548
0.022499
-0.097829
-0.048308
0.018446
-0.064705
0.040674
-0.012148
0.0046951
0.03612
0.029902
0.02906
-0.078241
-0.027432
-0.09122
-0.048741
-0.020977
0.037308
-0.0091843
-0.034714
-0.065672
0.043809
-0.081636
-0.011315
-0.019931
0.0087276
0.064063
-0.0082752
-0.061034
0.0023572
0.03678
0.0040169
0.053195
0.075388
0.0015812
-0.03615
0.015699
0.0023389
-0.074898
0.077199
0.028102
-0.0047892
-0.053152
0.10109
0.030262
0.019411
0.057027
0.035437
0.015315
0.043757
-0.10159
0.017938
0.014916
0.1504
0.12419
0.10675
0.10202
-0.10156
-0.03121
0.042969
-0.037803
0.014276
-0.071978
0.031437
0.036582
0.069783
-0.048335
0.0167
0.037873
0.066375
-0.096467
-0.023452
-0.014142
-0.051899
0.10262
0.015734
0.04309
0.0019811
-0.067114
-0.032996
-0.048172
0.13869
1.4933e-05
-0.040513
0.03492
0.063552
0.017459
-0.034603
-0.081037
0.0066278
0.047306
-0.062779
0.055289
-0.12244
-0.014904
-0.025454
0.11455
-0.045536
0.06064
0.061986
0.0045925
-0.0050595
-0.028555
-0.011678
0.053938
-0.044683
0.0087556
-0.07255
0.043109
0.039686
0.04831
-0.015692
-0.036207
0.092691
0.092368
0.011375
-0.033097
-0.028838
0.020404
-0.051386
0.10958
-0.01601
0.0021431
-0.020867
0.15045
0.0010904
0.0086384
-0.11121
-0.066217
0.00071492
-0.020764
-0.0031194
-0.011211
0.016155
0.063198
-0.069132
-0.0061942
-0.0063525
0.027291
0.0039642
-0.047981
-0.088608
-0.040179
0.011969
0.13614
-0.044625
-0.052539
-0.11716
0.06287
0.034681
-0.01388
-0.041002
-0.022888
-0.047856
0.089782
-0.076015
-0.083896
-0.050242
0.03638
0.048008
0.0051253
0.011354
-0.050676
-0.00018292
0.083267
-0.037781
-0.13667
-0.0043884
-0.021463
-0.058403
0.071693
-0.12053
0.063141
-0.057409
0.072368
-0.046512
0.014131
-0.10883
-0.034337
0.04203
0.026288
-0.0089159
-0.023067
-0.076079
0.13464
0.13493
-0.0094206
-0.058344
-0.10517
0.086533
-0.014359
-0.056801
0.011419
-0.18542
0.057574
0.090881
0.10075
-0.054412
0.023634
0.10748
-0.10364
-0.041692
-0.21059
-0.28883
0.012185
0.071005
0.027684
-0.068169
-0.060023
-0.01459
-0.052679
0.079181
-0.1371
0.060128
-0.049768
-0.042164
-0.064276
-0.11853
-0.10489
-0.061408
0.083113
0.064839
-0.020049
-0.066461
-0.05437
0.013711
-0.015772
-0.032343
0.05197
0.00097462
-0.0031117
0.048084
0.059512
-0.021043
-0.019818
-0.025934
-0.076587
-0.031285
0.017781
0.078384
-0.063522
0.016434
0.0044203
-0.024944
0.04273
0.14841
-0.11725
-0.12894
0.043887
-0.013495
0.095837
0.039227
0.0062549
-0.082549
0.058644
0.03342
-0.02818
-0.03599
-0.021189
-0.06118
0.15201
0.053499
-0.042224
-0.079196
-0.057483
-0.013882
-0.051717
-0.11568
-0.048919
0.060832
0.059898
0.084877
-0.044595
-0.18247
-0.017933
-0.023435
0.05575
0.058055
-0.07912
0.011326
-0.013913
-0.029307
0.017621
0.032477
-0.11367
0.046124
-0.020007
0.00701
0.054593
0.0082203
0.039253
0.1022
-0.081186
0.051992
-0.12963
-0.013312
-0.057413
-0.011916
0.038518
0.090665
0.0031234
0.0046612
0.020872
0.010339
0.06715
-0.019677
-0.04501
-0.1096
0.0062035
-0.069022
0.014314
0.079149
-0.048023
0.11989
0.093737
0.063956
0.015616
0.053739
0.029021
0.047922
0.0056495
-0.015717
0.045428
0.15093
0.0078711
0.17591
0.072839
0.059254
-0.10466
0.063438
-0.03261
-0.028481
-0.07881
0.0078674
0.032627
0.17407
-0.10448
-0.013224
-0.070633
0.055355
-0.08135
-0.1027
-0.032668
-0.13942
-0.033158
-0.0054421
0.052395
0.013329
-0.0024518
0.04401
0.03179
-0.013306
-0.022326
-0.0097958
-0.13953
0.043843
0.02227
-0.11237
-0.047914
-0.070134
-0.065011
0.010383
-0.040915
0.013506
-0.068563
0.066818
0.0282
-0.038985
0.029295
0.0027774
0.035141
-0.067787
0.06874
0.03828
-0.092357
-0.076159
0.040572
-0.11508
-0.048673
-0.025941
0.048729
-0.081736
0.10733
0.066054
0.0083022
-0.0066541
0.07645
0.063011
0.009271
-0.06748
0.02462
0.051891
0.12351
0.0038213
0.11414
-0.039306
0.071364
-0.046344
-0.10228
0.083922
-0.0035902
0.059043
0.015453
-0.059265
0.15977
-0.043501
0.062851
-0.059108
-0.0030479
-0.0087542
0.029189
-0.016677
0.14568
-0.088946
0.052595
-0.10998
-0.066151
-0.0011575
-0.077088
-0.044198
-0.036467
0.011699
0.11503
-0.031548
0.057602
-0.093542
-0.17422
-0.0062927
-0.028937
0.013353
-0.016857
0.0021712
-0.11066
0.054048
0.10718
0.003231
-0.047905
0.017288
0.0086598
-0.020524
0.09996
-0.10613
0.10086
0.083391
0.13229
-0.0012798
-0.12099
0.0078148
-0.019709
-0.037135
-0.058477
-0.022082
-0.036005
-0.079194
0.049483
-0.041651
0.13907
-0.083937
-0.05714
0.049523
-0.090746
0.016789
0.014698
-0.16251
-0.0016528
0.019247
0.032637
-0.10781
-0.07109
0.076781
0.028603
0.054405
-0.051174
-0.13003
-0.022999
0.0067558
0.067698
-0.065939
-0.073857
-0.041402
-0.059733
-0.038128
-0.085308
-0.10871
-0.10322
-0.016771
-0.090119
-0.11425
0.032505
0.028943
0.051678
-0.042622
0.032572
-0.029805
-0.083292
0.09296
-0.0030802
-0.10607
-0.081786
0.079251
0.041151
0.024425
-0.046951
-0.011447
-0.049085
0.076399
-0.05646
0.011733
0.066206
-0.04786
-0.0048863
-0.086128
0.08396
-0.025849
-0.089328
0.11193
-0.041313
-0.082674
-0.076405
0.097532
0.13455
-0.069797
0.073611
-0.076666
0.079697
-0.0083927
0.07794
-0.10041
-0.012808
0.058224
0.099884
-0.065424
-0.036287
-0.18879
-0.058236
-0.11625
-0.0014758
-0.00096761
0.045285
0.072076
-0.013185
0.098232
-0.06947
-0.1498
-0.16673
-0.0038999
0.02156
0.0039916
0.0045875
-0.040905
0.13969
-0.004199
0.0011901
0.063896
-0.19483
-0.03321
0.02334
-0.012656
-0.023225
-0.018318
0.031925
0.010495
0.044643
0.039502
-0.01675
-0.025018
-0.053212
0.039684
-0.036681
0.0064223
-0.10441
-0.00627
0.051742
0.072948
0.015856
0.024426
-0.0073259
-0.031907
-0.090942
0.083258
-0.15798
0.063169
0.068571
0.15819
-0.01729
-0.023181
0.082175
0.026205
0.014488
0.038576
-0.062056
-0.018802
-0.016189
0.14183
-0.13438
0.13777
0.055801
0.04829
-0.056889
0.025468
-0.18356
0.083202
-0.014656
0.03484
-0.06987
0.20934
-0.014584
-0.064355
-0.078423
-0.013259
-0.083752
-0.029634
-0.049816
-0.15321
-0.055071
0.17278
0.0049
0.016338
-0.053199
0.078134
0.10984
-0.10118
-0.099435
-0.077935
-0.16204
-0.021741
0.00071839
0.042363
0.025349
0.069898
0.057346
-0.0376
0.022073
-0.09762
-0.062778
0.12094
-0.001485
-0.033904
-0.067351
-0.066074
0.08141
0.098224
0.090088
-0.017078
0.010637
-0.12832
0.033731
0.052244
0.071101
0.015933
-0.00382
-0.084325
0.026338
0.054391
-0.056947
-0.054413
0.036053
-0.10659
-0.054092
0.0046804
0.021833
-0.027616
-0.032048
-0.040029
-0.01333
-0.097239
0.0011308
-0.046076
0.041986
-0.065153
-0.041299
-0.13295
-0.039375
0.049317
0.12364
0.036825
-3.6215e-05
-0.079867
0.060575
-0.06311
-0.0019809
-0.057818
-0.065146
0.048167
-0.035305
-0.078632
-0.091302
0.056872
0.073541
0.062217
0.083052
-0.024006
-0.085381
-0.047427
0.079112
-0.13086
-0.12136
0.021617
-0.044111
-0.0071911
-0.0032923
-0.019552
-0.073381
0.031809
0.077069
0.029462
0.014422
-0.062849
-0.0376
0.014001
0.0061103
-0.080925
-0.04088
0.066273
-0.062893
-0.024318
-0.093306
0.05243
-0.050264
0.091643
-0.10183
-0.1172
-0.046157
-0.10211
0.090358
-0.01808
0.072271
0.00093619
0.021619
0.077744
-0.00037091
0.074752
-0.089328
-0.12047
0.050151
-0.029879
-0.055222
-0.093557
0.0087839
0.011003
0.017045
0.028455
-0.05901
-0.068711
0.035192
0.075946
0.070826
0.032498
-0.037126
0.058962
0.025471
-0.049701
-0.075767
-0.09592
-0.066969
0.04567
-0.035474
-0.076823
0.031226
-0.0093577
0.050886
0.020633
-0.068177
0.045099
-0.070538
-0.065571
-0.09381
-0.0082407
0.052854
-0.0041364
0.03134
0.064343
0.054498
-0.068663
-0.077869
0.063914
-0.069854
-0.03501
-0.045497
-0.044432
0.09491
0.052678
0.021382
-0.031535
0.030345
0.0966
0.014953
-0.13095
-0.022878
-0.046874
-0.0042264
-0.10307
-0.018809
-0.14551
-0.071994
0.018598
0.059553
-0.040491
0.017909
-0.016088
0.20243
-0.11235
-0.16468
-0.18494
0.022327
0.012023
0.16351
-0.053392
-0.097938
0.11096
0.11779
0.077988
0.037977
-0.16759
-0.037811
0.085282
0.035015
0.04564
-0.10307
0.10749
0.22118
0.021311
0.048601
-0.15124
-0.17428
0.071738
-0.1189
-0.10838
0.075589
-0.044658
0.14182
0.054105
-0.0099126
0.012831
-0.10955
-0.0091224
-0.011535
-0.04017
0.051841
0.029472
0.33593
0.044598
-0.048305
0.094917
-0.037905
0.005762
-0.0087975
-0.034822
-0.093311
0.043625
0.20106
0.042841
-0.076982
0.18201
-0.012975
-0.0067295
-0.060504
-0.10795
-0.0013735
0.024283
0.2203
-0.10586
-0.059859
0.31314
0.020067
0.052783
-0.02548
0.04166
0.048799
-0.0588
0.045333
0.076013
-0.14244
0.18691
-0.0072022
0.35109
-0.090555
-0.065838
-0.05282
-0.014085
0.042562
-0.020784
-0.015717
-0.098163
-0.023797
0.13789
-0.087755
0.009797
0.047658
0.049394
0.090938
-0.1682
-0.012732
-0.012091
-0.09805
0.015674
0.10048
-0.0028451
0.051461
-0.063442
0.040108
-0.16949
-0.03119
-0.15136
-0.097087
-0.069445
0.015871
-0.081897
-0.00031457
-0.0068711
0.09771
0.065594
-0.062981
0.14669
-0.0097484
-0.11691
0.035804
0.0057382
0.073001
0.093934
-0.033977
0.021154
0.072028
0.1628
0.014107
-0.045702
-0.073816
-0.00038505
0.032058
0.033118
0.050927
0.013169
0.072778
0.062255
0.017889
-0.086735
-0.0070864
-0.043595
-0.068945
0.050811
0.0055807
-0.093597
0.009238
0.18881
0.045749
-0.052382
-0.04548
-0.029801
0.029105
0.10578
0.0037012
-0.015833
0.059833
0.18011
-0.08461
-0.015468
-0.091342
0.033856
-0.064138
0.029063
-0.0060976
-0.071829
0.016826
0.12334
0.035759
-0.017907
-0.07927
-0.013242
0.012534
0.0013422
-0.011011
-0.045248
-0.030998
0.034235
0.033524
0.03497
-0.014046
-0.09571
0.016918
0.093611
0.048757
-0.08352
0.02551
0.028352
0.079481
-0.040767
-0.017529
-0.097819
-0.018298
-0.06399
-0.035761
0.022553
-0.069792
-0.056998
0.023413
-0.061672
0.086991
-0.012286
-0.036764
0.09557
-0.014566
-0.028213
-0.051564
-0.15856
0.06342
0.085353
-0.076852
-0.10779
-0.030233
-0.010957
-0.011365
0.069461
-0.11882
-0.10873
-0.029868
0.044698
-0.0015744
0.017446
-0.066558
0.076207
-0.043045
0.082239
0.027124
-0.024994
0.031124
0.07404
0.070377
-0.11794
0.046235
0.02593
0.018278
0.056092
-0.03294
-0.083102
-0.099633
0.081218
-0.058499
0.025464
0.070411
0.069614
-0.016985
0.05466
-0.045186
-0.033898
-0.04602
0.058361
-0.052566
-0.019078
0.013752
0.043375
0.077794
-0.14242
0.071193
-0.033382
-0.068924
0.038768
0.058661
-0.11667
-0.064569
0.01059
0.084252
0.025122
-0.057443
-0.064636
-0.030567
-0.030161
0.033695
-0.088469
0.043591
0.056511
0.041637
0.10563
-0.12376
-0.22439
-0.037582
-0.048613
0.027922
-0.1213
0.048584
0.011547
0.058871
0.24
0.060849
-0.079988
-0.14665
-0.057937
0.054418
-0.07556
-0.025644
-0.051879
0.15088
0.15266
-0.026648
-0.067019
-0.12547
-0.1102
-0.0011437
-0.034949
-0.04454
0.00092379
0.3263
0.17991
-0.23829
-0.0076403
-0.056086
-0.19177
0.11183
-0.0045519
0.0082156
0.070959
0.36026
0.15039
-0.29682
0.018055
-0.021159
-0.25021
0.024407
-0.034349
0.016453
-0.052662
0.34037
0.080823
-0.26493
0.22548
-0.037588
-0.010864
-0.065109
-0.017815
-0.059417
-0.023849
0.22426
0.014756
-0.12023
0.10143
0.021914
0.22773
-0.10746
0.0075869
-0.053605
-0.009588
0.09171
-0.074515
0.0047505
-0.016161
-0.034159
0.14181
-0.10872
0.020299
-0.077737
-0.0057893
0.031332
-0.1572
0.10854
-0.03963
0.01793
0.097275
-0.0018284
0.052726
-0.039764
0.0093522
0.10872
0.026759
-0.069466
-0.050795
-0.1032
0.015992
0.051171
-0.12843
-0.088929
0.068339
-0.023526
-0.054872
-0.056179
-0.023513
-0.081697
-0.036807
-0.021144
0.018679
-0.06487
0.079575
0.0040515
-0.097705
0.074825
0.079966
-0.061444
-0.08134
-0.049697
-0.045667
-0.030686
0.045844
-0.10527
-0.15526
0.1386
0.19718
-0.067114
-0.1086
-0.10679
-0.024766
-0.088964
0.1091
-0.14299
-0.14806
0.10453
0.19381
-0.051873
-0.14895
-0.18484
0.013949
-0.08005
0.032535
-0.023801
-0.12992
0.020444
0.10064
0.062107
0.016279
-0.11198
0.019715
0.046597
0.088314
-0.085193
-0.16924
0.15841
-0.014979
-0.051867
0.067956
-0.083586
-0.025418
0.054718
0.070156
-0.073012
0.028169
0.042089
-0.047386
-0.082442
-0.021927
-0.06058
-0.036026
0.057888
0.052872
-0.036389
-0.088739
-0.040576
-0.041687
0.042759
0.013377
-0.02956
-0.084495
-0.048227
-0.046669
-0.027488
-0.0072315
0.042917
0.042819
0.012378
-0.05862
0.0072531
0.044328
-0.020964
-0.040224
0.024666
-0.0092587
0.0082898
0.049038
-0.074245
0.064548
0.029796
-0.034641
0.051585
-0.002391
0.054147
0.072686
0.020211
-0.05645
0.0022911
0.083768
-0.092129
0.011256
-0.07896
0.0063509
-0.030577
-0.079934
-0.020556
-0.093906
0.042684
0.072424
-0.017679
-0.12762
-0.10445
-0.058974
0.015326
-0.007753
0.057935
-0.11905
-0.074799
0.034039
-0.028878
-0.059078
0.069032
0.0066936
-0.04446
0.063572
0.073395
0.041521
-0.0232
0.043358
-0.068305
-0.007266
-0.03621
0.00010722
0.045029
0.11124
0.028211
-0.02138
-0.053215
-0.026839
0.037576
-0.069209
0.043248
0.068929
0.080255
0.052352
-0.097395
-0.048437
-0.00027834
-0.038542
0.046454
-0.088874
0.070558
0.07945
0.016854
0.11965
-0.077385
0.0013593
0.013526
-0.058284
0.015027
-0.12537
-0.09837
0.026881
0.11119
0.13953
-0.063759
-0.091542
-0.0092902
-0.05779
0.095628
-0.10536
0.063707
-0.060359
0.19358
0.25935
-0.21194
-0.18544
-0.099943
-0.14534
0.058247
0.009504
0.045021
-0.010674
0.069993
0.21451
-0.31233
-0.040966
-0.021605
-0.19762
-0.016893
-0.05101
-0.037177
0.062891
0.23996
0.23238
-0.16863
-0.029428
-0.087579
-0.16041
-0.049732
-0.11103
-0.074078
0.07016
0.10147
0.088877
-0.032624
0.058676
0.010854
0.0074308
-0.072826
-0.049262
-0.10505
0.013636
0.012923
-0.051841
-0.026547
-0.063726
0.059294
0.063133
0.0038168
-0.08498
-0.024773
0.06429
-0.011767
-0.0034257
0.02474
0.039018
-0.032324
-0.042385
-0.034943
-0.0031221
0.0041513
0.016684
-0.14814
-0.15272
0.061117
0.1438
0.002723
-0.073849
-0.20041
-0.032214
0.067827
0.046188
-0.11595
-0.11851
0.137
0.10153
0.1023
-0.096921
-0.1857
-0.07291
-0.090339
0.072016
-0.20927
-0.13076
0.063349
0.16423
-0.011153
0.064575
-0.11562
-0.0027093
0.03075
0.10557
-0.26645
-0.19869
0.17556
0.19949
0.0014675
0.020309
0.004638
0.025684
0.073113
-0.035319
-0.068352
-0.051379
0.13059
0.041972
0.040938
-0.071147
-0.06626
-0.069216
0.043235
-0.0013432
-0.115
-0.054846
0.13816
0.12363
-0.094079
0.014206
-0.051364
-0.042561
-0.043408
-0.0048843
0.019969
-0.020426
0.065792
0.10128
-0.04207
-0.0534
0.045333
-0.035504
-0.091245
-0.022964
-0.025583
-0.023965
0.065115
0.028206
0.069693
0.040944
-0.078973
-0.039053
-0.097716
0.071773
0.052104
-0.096906
-0.070944
0.06143
-0.043808
-0.022065
-0.076303
0.011772
0.019799
0.069069
0.13741
-0.099446
-0.056297
-0.058049
0.011292
0.067283
0.01955
-0.083325
-0.029594
-0.011675
-0.040771
-0.091457
0.04443
-0.065603
0.028347
0.029664
-0.013337
-0.093458
-0.0088334
0.10199
0.08415
-0.0066649
0.089231
-0.061539
-0.093373
-0.02976
0.085098
0.0093538
-0.045549
-0.023368
-0.012536
0.019566
0.046669
-0.037903
0.068409
0.0087279
-0.047014
-0.10242
0.0035577
0.061979
-0.036899
0.083752
0.030092
-0.04039
-0.015443
0.067821
0.063131
0.034344
0.065395
-0.061805
-0.038696
0.074929
0.029735
-0.0018466
0.0046306
0.061152
-0.049831
0.029424
0.072232
0.05227
-0.045794
-0.0055505
-0.084937
0.02408
-0.082145
-0.016773
-0.051667
-0.0019352
-0.042809
0.059619
0.073875
0.062627
-0.06203
-0.067733
-0.055808
-0.015731
0.10605
0.046494
0.053763
-0.06049
-0.058363
0.032374
0.0057359
-0.07335
-0.055034
-0.026181
0.02117
0.017691
-0.025741
-0.0048383
0.091966
0.082275
-0.15203
-0.0098365
-0.0098268
0.023371
0.048069
-0.030264
-0.018787
0.021779
-0.071765
0.045526
-0.0058914
0.0035285
-0.054015
-0.035935
0.049086
3.2261e-05
0.012544
0.096159
0.073997
0.08056
0.013734
-0.021987
-0.08152
0.063301
0.0057004
-0.054607
-0.045472
-0.0076325
0.060153
0.14801
0.067217
0.028451
0.035662
0.050641
0.074926
-0.033735
-0.047919
0.031513
-0.025151
0.045946
0.0093682
0.079542
-0.06549
0.065258
-0.028295
-0.045543
-0.07906
0.015094
-0.0079834
-0.029937
0.021975
0.0043257
-0.046937
0.084521
-0.089983
-0.11588
0.046799
-0.047128
-0.070223
0.040223
-0.049504
-0.076835
0.070186
0.07913
0.049737
-0.042854
-0.026464
-0.013919
-0.038566
0.042545
-0.025926
-0.012465
-0.026215
-0.10496
-0.13771
-0.064067
0.067291
0.036213
-0.11189
-0.080064
0.10715
0.10501
-0.0092663
-0.026556
-0.065029
-0.018884
-0.055349
0.0082256
0.016287
0.021783
-0.040574
0.044521
-0.063039
0.0043574
0.066023
0.025487
0.052336
-0.045269
0.056576
0.050957
0.0078044
-0.014875
-0.065307
-0.043506
-0.02004
0.040476
0.043186
-0.044824
0.0030022
-0.083289
0.084195
-0.057879
-0.10225
-0.0015485
-0.028402
-0.087749
-0.092761
0.10331
0.0243
0.023616
-0.028485
0.022957
-0.054085
0.04165
0.024742
-0.084034
0.065922
0.05271
0.020968
-0.068539
-0.0076312
0.01492
0.036964
-0.071236
-0.03114
-0.031809
-8.2337e-05
0.081115
0.096099
-0.048352
-0.025878
0.031642
-0.021102
-0.0054479
0.0682
-0.089035
-0.013002
0.0049184
-0.025777
0.089448
0.11187
-0.068858
0.048054
0.091637
-0.072103
-0.12775
-0.072421
0.0011359
-0.044956
0.03759
0.072747
-0.071943
-0.09083
-0.017712
-0.050579
0.024872
-0.039193
-0.043099
0.057828
0.030138
0.070415
0.030865
-0.071801
0.10556
-0.057069
0.033421
-0.081131
0.066515
-0.063376
0.043106
0.0061287
-0.096744
-0.094253
0.035159
-0.094295
-0.044288
-0.086329
0.080594
-0.033123
-0.075333
-0.050964
-0.086602
-0.086992
-0.039243
-0.020242
-0.097568
0.024668
-0.0064712
-0.060661
-0.028894
0.077026
-0.11933
-0.071469
0.027407
-0.040185
-0.05941
-0.051486
0.040653
-0.042685
0.03988
0.00060258
-0.018302
-0.047575
-0.077153
0.023528
0.017069
-0.10185
0.0076505
0.042255
-0.049722
0.070893
-0.083118
-0.018065
0.08044
0.079635
-0.10151
0.069279
0.047487
-0.085048
0.016867
-0.044942
-0.0037265
-0.034624
-0.0068269
0.066859
-0.050599
-0.067908
0.011872
0.10204
0.0058091
0.048048
-0.011283
0.025549
-0.071683
0.06626
0.0067473
0.0098992
0.048382
0.029882
0.0020996
-0.050867
0.0096917
0.063129
0.049472
-0.095266
-0.059069
-0.078608
0.053628
0.062252
0.016417
0.0088941
-0.062635
-0.092688
0.0030381
-0.04865
-0.12209
0.0077298
0.093351
-0.01271
-0.071904
0.081592
-0.033487
0.020524
-0.0064261
-0.0081999
-0.10037
0.049579
0.023679
0.038345
0.062946
-0.055944
-0.066034
0.066194
0.031539
0.053492
-0.13084
0.06914
0.10892
0.038822
-0.036194
0.090492
0.056212
-0.019591
-0.028961
-0.076357
-0.13015
-0.060872
0.074786
-0.012896
0.070088
0.10925
0.056465
0.049133
-0.083924
0.057967
-0.12759
-0.098575
0.01684
-0.041513
-0.044382
0.063223
0.029587
-0.030305
0.019632
-0.040678
0.043275
-0.028965
0.10786
-0.029986
-0.013815
0.0067812
-0.0059203
-0.0632
-0.033778
0.024631
0.042021
0.060526
0.073384
-0.019978
-0.072634
0.091821
-0.02495
0.045288
-0.069255
-0.088705
-0.044136
-0.090724
-0.043588
0.015324
-0.038283
-0.065126
-0.097965
0.044937
-0.043486
0.022958
-0.10181
0.069268
0.011447
0.0037108
-0.081915
-0.020807
-0.080274
-0.048343
0.02952
0.051359
-0.0025035
-0.029134
-0.0098736
-0.020755
-0.054667
0.092448
-0.061619
-0.42925
0.70375
0.79306
0.59802
-0.32131
-0.71954
0.83897
0.16415
1.4347
-0.12582
-0.66085
-0.43611
0.5831
1.2015
0.57387
-0.5003
0.26014
-2.3284
0.47097
0.14795
-0.49965
-2.6889
-0.57566
-2.7858
2.1036
-1.8415
0.56302
1.7115
0.90698
1.3061
1.4677
-1.421
-0.48488
1.4529
1.977
-0.068331
-0.89775
1.4671
-2.3808
2.1349
0.71198
-0.079189
0.59842
-0.538
-0.36537
0.97496
-0.29593
-0.28659
-0.33811
0.46844
-0.33225
0.033988
-0.0061489
-0.013746
0.34185
0.95455
-0.092721
0.33002
0.055894
-0.92734
-0.20793
1.1215
-0.2671
-0.32226
0.65037
-0.50866
-0.26944
0.70497
0.33227
-0.26484
1.4728
-1.005
-1.8274
-0.63645
1.236
2.8034
1.0151
-1.1105
0.4192
-1.8175
-2.7363
1.5948
-2.066
1.4865
0.96181
1.2833
-2.8261
1.5211
1.8831
0.43808
-2.0631
1.2481
0.9799
0.37034
1.986
-1.1336
0.50116
0.05736
-1.3615
-1.6521
1.5444
-1.9283
0.97632
1.396
-1.2162
0.19863
-1.7694
1.4381
0.89628
-1.5019
